<?xml version="1.0"?>
<opencv_storage>
<my_svm type_id="opencv-ml-svm">
  <svm_type>C_SVC</svm_type>
  <kernel><type>LINEAR</type></kernel>
  <C>1.0000000000000001e-001</C>
  <term_criteria><epsilon>9.9999997473787516e-006</epsilon>
    <iterations>1000000</iterations></term_criteria>
  <var_all>128</var_all>
  <var_count>128</var_count>
  <class_count>2</class_count>
  <class_labels type_id="opencv-matrix">
    <rows>1</rows>
    <cols>2</cols>
    <dt>i</dt>
    <data>
      -1 1</data></class_labels>
  <sv_total>1</sv_total>
  <support_vectors>
    <_>
      6.45807460e-002 1.08918354e-001 -1.01356514e-001 -5.33647716e-001
      -1.74486935e-001 2.37273127e-002 -6.13687575e-001 -2.74008751e-001
      -4.80999798e-002 1.65136129e-001 8.54801759e-002 -1.31351743e-002
      -8.62386264e-003 -9.45500806e-002 -1.97413459e-001
      -2.02719390e-001 -3.67876911e-003 1.35492265e-001 -1.60364240e-001
      2.90020593e-002 -7.55021334e-001 -1.65845275e-001 -1.12150751e-001
      -1.41174600e-001 -1.15712546e-001 -1.73277661e-001
      -1.56387672e-001 -1.92684904e-001 -1.17336335e-002
      -3.35944504e-001 -1.64605994e-002 -1.27854854e-001
      -6.17289431e-002 -2.13578701e-001 -4.43441510e-001
      -9.91877243e-002 -4.65360492e-001 -9.39273182e-003
      -3.00369829e-001 -2.15944927e-002 7.39053413e-002 -2.49633789e-001
      4.35511135e-002 -6.03289790e-002 -1.32368252e-001 -2.16589481e-001
      -3.15972388e-001 -5.55501103e-001 -1.28741547e-001 2.43658628e-002
      -2.14542672e-001 -3.07191852e-002 8.84763710e-003 -7.36771971e-002
      -4.02584702e-001 -2.98622310e-001 4.18597944e-002 3.18458937e-002
      1.82094201e-002 1.46733582e-001 -2.92247947e-004 2.39177465e-001
      -7.27981478e-002 -1.25012770e-001 4.79322486e-002 -1.00988060e-001
      1.36238337e-001 -1.56071946e-001 -7.13491678e-001 -1.54910445e-001
      -1.91072002e-001 -1.86921120e-001 -2.77358919e-001
      -8.00190791e-002 -1.78872660e-001 -1.32283971e-001 1.97266061e-002
      -4.12756771e-001 -4.16984588e-001 6.42810389e-002 -1.97441041e-001
      -2.61919290e-001 -1.24297410e-001 -2.18176290e-001 1.58486068e-001
      1.29832745e-001 -4.05482590e-001 -1.66629612e-001 -1.30889177e-001
      -6.34646177e-001 -1.99251607e-001 1.76012561e-001 -5.78595661e-002
      -7.10387304e-002 -3.86054128e-001 -4.45264317e-002
      -4.03116971e-001 -8.18738118e-002 -2.28302807e-001
      -3.80491726e-002 -8.90426114e-002 -1.70024633e-001
      -2.04219297e-001 -1.38315678e-001 -2.09349673e-002
      -4.77362186e-001 2.60798354e-002 1.85581911e-002 -1.06353521e-001
      -8.57734457e-002 -5.66143841e-002 -9.88841429e-002
      -5.66044152e-001 1.06025599e-001 -1.13595881e-001 -3.38078141e-001
      -1.72390386e-001 -1.17261991e-001 -1.90687217e-002 8.28508809e-002
      -4.24973816e-001 -9.50650424e-002 -1.26108035e-001
      -2.10933611e-002 -2.67159671e-001 -2.01584101e-001
      -1.22560844e-001 8.94169807e-002</_></support_vectors>
  <decision_functions>
    <_>
      <sv_count>1</sv_count>
      <rho>-5.8831158418064255e+000</rho>
      <alpha>
        1.</alpha>
      <index>
        0</index></_></decision_functions></my_svm>
</opencv_storage>
