<?xml version="1.0"?>
<opencv_storage>
<my_svm type_id="opencv-ml-svm">
  <svm_type>C_SVC</svm_type>
  <kernel><type>LINEAR</type></kernel>
  <C>1.0000000000000001e-001</C>
  <term_criteria><epsilon>9.9999997473787516e-006</epsilon>
    <iterations>1000000</iterations></term_criteria>
  <var_all>512</var_all>
  <var_count>512</var_count>
  <class_count>2</class_count>
  <class_labels type_id="opencv-matrix">
    <rows>1</rows>
    <cols>2</cols>
    <dt>i</dt>
    <data>
      -1 1</data></class_labels>
  <sv_total>1</sv_total>
  <support_vectors>
    <_>
      -1.43813789e-001 -2.46234968e-001 2.53503889e-001 -9.78249162e-002
      -1.64118588e-001 -2.11314335e-002 -2.02392088e-003
      -1.88652366e-001 -1.17056988e-001 1.37029926e-003 -8.10194984e-002
      -6.23935871e-002 1.34853914e-001 -5.37512526e-002 -4.09654044e-002
      1.04322582e-002 -1.72131941e-001 -2.85895076e-003 -1.56927332e-001
      -1.17898606e-001 -2.77452946e-001 -1.49891049e-001 1.08175483e-002
      3.22049484e-002 -9.52989981e-002 -3.63185145e-002 -9.52526927e-002
      6.13283773e-004 1.15468977e-002 -1.49089798e-001 -1.56560272e-001
      -1.97401851e-001 1.50736690e-001 2.50904337e-002 -3.89505684e-001
      -3.13279182e-002 -2.19873846e-001 6.47555664e-002 3.65912244e-002
      -3.28530371e-002 1.56084269e-001 9.07102153e-002 -4.31903675e-002
      -6.06071651e-002 -1.92353487e-001 3.17560509e-002 2.78545052e-001
      1.06817335e-001 -1.09039314e-001 -3.64568853e-003 -4.72466135e-003
      -3.28215100e-002 -1.96549013e-001 -3.09685528e-001
      -1.42930731e-001 -1.62666794e-002 -2.38902926e-001 7.49803474e-003
      -4.41988111e-002 3.04270506e-001 -1.66615099e-001 -1.99735776e-001
      -2.01475367e-001 -3.18229645e-002 -8.60893279e-002
      -2.35021755e-001 -1.56838655e-001 -1.90427512e-001
      -2.15322047e-001 -2.91842312e-001 8.13850015e-002 1.46758646e-001
      -1.42116547e-001 -2.28783116e-001 2.16016006e-002 -1.41788423e-001
      -7.03139678e-002 -8.11244100e-002 -8.02248269e-002
      -1.04781389e-001 -4.05865461e-001 1.88304618e-001 -2.43207127e-001
      -4.02262658e-001 -1.46518290e-001 -1.54650658e-001
      -2.04782128e-001 -1.19489431e-001 -2.60280073e-001
      -6.88306615e-002 -5.79543747e-002 -2.22549796e-001
      -1.04476348e-001 5.26040271e-002 -1.57715589e-001 -2.83859998e-001
      -1.83719128e-001 -1.74005717e-001 -4.10827160e-001 2.34974697e-001
      -8.29642564e-002 -1.26401305e-001 -1.86014865e-002
      -4.33230326e-002 -2.90119927e-002 -2.77918465e-002
      -2.43221998e-001 -3.87083799e-001 -3.23082536e-001
      -2.32110113e-001 8.16753134e-002 9.32698473e-002 -8.42157081e-002
      -5.50368428e-002 -1.87938899e-001 1.32556975e-001 -2.07776770e-001
      -3.01367249e-002 -2.80338863e-004 -3.54129851e-001
      -2.06138998e-001 -9.02399495e-002 5.46023361e-002 5.55328429e-002
      -5.00004925e-002 1.74548805e-001 -1.27770066e-001 -4.70542572e-002
      -1.24851331e-001 4.72495593e-002 -1.37649074e-001 -7.89263919e-002
      -1.31418407e-001 -9.26818997e-002 1.25536248e-001 -1.90163165e-001
      2.64219400e-002 -1.80797145e-001 -2.59094313e-002 -1.69570080e-003
      -6.51534200e-002 -2.85067201e-001 -1.51298478e-001 4.20428775e-002
      -9.40247253e-002 -2.64514714e-001 -5.71056008e-002 9.69391316e-002
      -2.54715443e-001 7.04613253e-002 -1.49262622e-001 -4.00330782e-001
      -1.44873381e-001 -1.66886538e-001 -3.41538340e-001
      -5.09381741e-002 2.67792996e-002 1.33725062e-001 -1.27444163e-001
      -2.56603569e-001 -4.53775190e-003 -7.91507438e-002
      -1.84957907e-001 -4.25043225e-001 -9.85385329e-002
      -1.98308215e-001 -2.20405445e-001 -1.29271775e-001
      -2.35806882e-001 -1.07849166e-001 9.05912817e-002 6.23361431e-002
      1.37482062e-001 7.81198516e-002 4.42231679e-003 -3.86193842e-002
      1.45321256e-002 -1.79197788e-001 -2.75220901e-001 -1.64941490e-001
      -1.54239431e-001 -5.92019223e-002 -2.83935696e-001
      -2.71426976e-001 -2.64289916e-001 -5.44830680e-001
      -2.93075770e-001 -5.86692467e-002 9.41561237e-002 -2.22389653e-001
      -5.07858070e-003 -6.70513064e-002 -2.07691982e-001
      -1.63547814e-001 -2.22783878e-001 -2.98221231e-001
      -8.18404779e-002 2.62762189e-001 -1.54120058e-001 -1.20455280e-001
      -9.95857120e-002 -1.97530255e-001 -2.88930506e-001 1.76648617e-001
      -1.03318885e-001 -2.31037691e-001 6.17622286e-002 -1.82019159e-001
      1.09276049e-001 -2.53809124e-001 -1.34544447e-001 -4.80555836e-003
      -8.59613344e-002 -2.43763447e-001 -4.91802357e-002
      -6.56838864e-002 -2.78723300e-001 6.67072739e-003 5.46824895e-002
      5.82954437e-002 -8.20273012e-002 -1.00812316e-001 -2.19219066e-002
      -6.02035560e-002 2.12241292e-001 -2.51395851e-001 -1.40276715e-001
      2.72202119e-002 -1.66349426e-001 -5.36460318e-002 -3.73924673e-002
      -4.73613553e-002 -2.41975203e-001 -5.43832257e-002
      -1.48805920e-002 -1.16554469e-001 -1.12493488e-003
      -6.53194860e-002 -2.60702401e-001 -3.17602366e-001
      -2.15833545e-001 -7.19631985e-002 -2.44889319e-001
      -4.55087796e-003 1.76921878e-002 -5.69755360e-002 5.63030876e-002
      -1.45317778e-001 -3.86590250e-002 -4.71092500e-002
      -2.08509967e-001 2.77837198e-002 -8.71890038e-002 3.21980077e-003
      1.88306347e-002 -1.54500172e-001 -1.36488587e-001 -9.66287181e-002
      -3.51451457e-001 8.89531821e-002 -3.48895453e-002 8.43631253e-002
      -1.59333259e-001 1.43770918e-001 -1.40636131e-001 -1.44747779e-001
      5.15654795e-002 -1.43627092e-001 1.04280025e-001 -1.84080228e-001
      -1.78257495e-001 5.52532263e-003 -1.24276266e-001 -1.48382276e-001
      -4.71300296e-002 3.46454605e-002 -6.70895502e-002 -8.39199275e-002
      -2.06558958e-001 -7.92001337e-002 -6.48550391e-001
      -3.15554917e-001 9.65902880e-002 8.38180706e-002 9.65173393e-002
      -3.96383107e-002 5.90861589e-002 1.18980497e-001 -6.46389574e-002
      1.35699809e-002 -8.51433948e-002 2.60048546e-002 -4.29565996e-001
      -2.49568224e-002 3.50203365e-003 -2.00357229e-001 -1.23870634e-001
      -6.60289451e-002 -2.54830390e-001 5.00420295e-002 -1.04085781e-001
      1.16748229e-001 -6.37519583e-002 -1.00066409e-001 -1.63726047e-001
      -3.05549413e-001 -1.02123834e-001 3.31515446e-002 -5.69367371e-002
      6.76660687e-002 4.43754867e-002 1.70060486e-001 -5.19545637e-002
      -1.55149465e-002 -1.40623003e-001 -2.69699041e-002
      -4.49728295e-002 -1.95584640e-001 -1.37141541e-001
      -3.15135598e-001 -4.90986764e-001 -9.57426429e-002
      -2.14694709e-001 3.24666232e-001 -1.11890733e-001 8.80838931e-003
      -2.04956576e-001 -1.51678249e-001 -2.90677786e-001
      -2.47571155e-001 9.42209661e-002 -1.61636531e-001 -1.55151784e-001
      1.11173972e-001 -1.23609133e-001 -1.69885065e-002 -2.19583645e-001
      1.07229650e-001 -9.74580720e-002 8.19552243e-002 1.17477991e-001
      -1.59347296e-001 -2.14043602e-001 -1.55751020e-001 3.38302881e-001
      -1.01938844e-001 -1.31935403e-001 1.09274890e-002 3.41206938e-002
      1.72780037e-001 -2.57474482e-002 8.73541757e-002 4.32139859e-002
      -1.30899906e-001 3.49367768e-001 -1.20331071e-001 -3.68682258e-002
      -3.76481563e-001 2.43258804e-001 8.65928531e-002 2.98067667e-002
      -1.85494050e-001 8.67519379e-002 -1.68076947e-001 -1.00142941e-001
      -2.74450839e-001 2.73509081e-002 -1.74634442e-001 -2.38157257e-001
      -7.14092189e-003 -9.09752995e-002 -2.08076254e-001
      -1.66612014e-001 -3.12887341e-001 -3.68654877e-001
      -3.24276984e-001 -1.49167314e-001 -2.19248474e-001
      -1.11612022e-001 -2.20122859e-001 -1.63534954e-001 3.60585600e-002
      1.85836386e-002 -3.55867177e-001 -2.78775483e-001 -1.82286650e-001
      -1.65900677e-001 -1.41723305e-001 -2.65143603e-001
      -1.74399450e-001 -3.89451794e-002 -2.79800534e-001 3.35513614e-002
      5.50958365e-002 -1.22874640e-001 -2.32128456e-001 2.29361299e-002
      -4.02240567e-002 1.94376975e-003 -9.17000175e-002 -1.72808304e-001
      -9.90073010e-002 9.78448056e-003 4.06641560e-003 -5.40977940e-002
      -3.00619435e-002 -8.76192972e-002 8.64551961e-002 9.94399115e-002
      -2.09845766e-001 -2.99569927e-002 -9.80224684e-002
      -2.76952267e-001 2.54520625e-001 -5.77227212e-002 5.94591014e-002
      -1.25108898e-001 2.51135584e-002 -2.35104740e-001 4.60966453e-002
      -1.13567971e-001 -1.05947949e-001 1.94904283e-001 -2.34778613e-001
      1.73332524e-002 -1.57122631e-002 -4.39488977e-001 -4.11590599e-002
      -3.94657105e-002 -1.21626861e-001 -1.51160687e-001
      -1.75563574e-001 -2.74015069e-001 -5.46393171e-002
      -1.36859760e-001 -3.39332893e-002 -2.04620123e-001
      -8.53487104e-002 -1.50703236e-001 -1.25446200e-001
      -4.07895911e-003 -7.42629170e-002 -2.90281713e-001
      -9.15780962e-002 5.05861007e-002 1.71801485e-002 -3.24206650e-001
      -1.49169058e-001 -6.55561406e-003 -8.04624110e-002
      -1.75823092e-001 -1.03896685e-001 1.79099023e-001 -6.30909204e-002
      -6.00595661e-002 -2.02782415e-002 5.33046499e-002 -7.94713646e-002
      1.62865251e-001 -1.27149075e-002 -8.01176354e-002 -2.41699606e-001
      -1.68554083e-001 -3.01266685e-002 -7.85831129e-004
      -7.37961531e-002 -9.37757716e-002 4.46508601e-002 -4.37301509e-002
      -3.67321163e-001 3.69816609e-002 -9.11297873e-002 -1.49084255e-001
      -1.92262411e-001 -2.23369449e-001 2.99868941e-001 -1.00820534e-001
      -1.32421479e-001 -6.67519569e-002 -6.95740581e-002
      -4.23070341e-001 -2.47028116e-002 -7.22164363e-002
      -3.69932503e-002 2.03239843e-002 9.57575440e-002 -1.22553512e-001
      -1.33046672e-001 -1.54075831e-001 -9.74078476e-002 1.50840476e-001
      1.65969536e-001 3.05158217e-002 -3.61749351e-001 -9.60068852e-002
      -1.20222658e-001 -2.81685069e-002 -1.11866824e-001 1.09428868e-001
      -2.39108562e-001 -4.45015252e-001 -1.60850748e-001 2.25681830e-002
      -1.77095532e-001 -2.81965584e-001 1.81726292e-001 8.23752657e-002
      -3.94894704e-002 1.43784940e-001 -2.06416063e-002 -8.75146165e-002
      1.37693211e-001</_></support_vectors>
  <decision_functions>
    <_>
      <sv_count>1</sv_count>
      <rho>-2.5324916912216313e+000</rho>
      <alpha>
        1.</alpha>
      <index>
        0</index></_></decision_functions></my_svm>
</opencv_storage>
