<?xml version="1.0"?>
<opencv_storage>
<my_svm type_id="opencv-ml-svm">
  <svm_type>C_SVC</svm_type>
  <kernel><type>LINEAR</type></kernel>
  <C>3.1250000000000000e+002</C>
  <term_criteria><epsilon>9.9999997473787516e-006</epsilon>
    <iterations>1000000</iterations></term_criteria>
  <var_all>600</var_all>
  <var_count>600</var_count>
  <class_count>2</class_count>
  <class_labels type_id="opencv-matrix">
    <rows>1</rows>
    <cols>2</cols>
    <dt>i</dt>
    <data>
      -1 1</data></class_labels>
  <sv_total>1</sv_total>
  <support_vectors>
    <_>
      9.14253807e+000 1.43907843e+001 1.07524691e+001 7.10330868e+000
      -7.44127369e+000 -1.47103918e+000 -1.33903627e+001 1.11081867e+001
      3.03285217e+001 1.94598274e+001 -7.90525341e+000 1.97652798e+001
      2.59894962e+001 -5.81912565e+000 -4.49610376e+000 -3.39201689e+000
      -7.98937976e-002 -1.15921135e+001 1.85373425e+000 -1.63642538e+000
      2.78965874e+001 9.33857155e+000 6.45203400e+000 1.46412144e+001
      1.10721385e+000 -4.93468046e+000 -1.83074646e+001 -1.09426622e+001
      -2.55525255e+000 -4.23322344e+000 -4.04710263e-001 7.93286991e+000
      -8.44509792e+000 1.80766735e+001 -3.79632449e+000 -1.26080966e+000
      -1.06839390e+001 -1.11070890e+001 1.46527779e+000 -3.37998581e+000
      9.13956356e+000 7.89833593e+000 -1.42267728e+000 -1.60030613e+001
      2.17632160e-001 3.98562431e+000 6.84964466e+000 5.78504229e+000
      2.18265152e+001 -1.13188105e+001 -7.32285213e+000 2.15064659e+001
      1.34381628e+001 5.72393894e+000 5.37657213e+000 2.46021347e+001
      2.30883956e+000 -8.46264172e+000 9.18300271e-001 1.04322166e+001
      -3.27266693e+001 5.19964266e+000 -7.49931622e+000 -5.24683952e+000
      1.55692167e+001 1.01775713e+001 5.84083033e+000 -2.23097587e+000
      -1.16562986e+000 -1.24120131e+001 -8.96056938e+000
      -3.11152577e+000 -8.21095562e+000 -2.27160721e+001 1.20395784e+001
      1.07217131e+001 -6.35983515e+000 -1.16255579e+001 -4.44178009e+000
      -9.55183983e+000 -9.91981792e+000 -4.10400105e+000
      -1.12467718e+001 -1.40269203e+001 -8.55431318e-001 6.27658224e+000
      -1.06615829e+000 -2.47216969e+001 -1.75499687e+001
      -1.00912933e+001 -1.88916912e+001 2.63831654e+001 -1.55702114e+000
      -1.98285828e+001 -8.86868382e+000 -8.25955582e+000 4.33823280e-002
      -1.77807224e+000 -4.22631919e-001 2.02949166e+000 -5.75821066e+000
      -1.19096899e+001 -1.34815054e+001 1.73088455e+001 -1.77358360e+001
      8.29967117e+000 -1.52341385e+001 9.52274990e+000 1.32361107e+001
      -7.27173185e+000 -5.74724972e-001 -1.26728954e+001 2.84160399e+000
      1.58257837e+001 -1.06335468e+001 3.86268759e+000 1.60184717e+000
      2.26449261e+001 8.54398537e+000 1.01571178e+001 1.49751749e+001
      5.08146715e+000 2.67290854e+000 2.20559063e+001 3.62104130e+000
      1.06326094e+001 -9.95880318e+000 6.70534086e+000 6.17576599e-001
      1.50338387e+000 5.72161102e+000 1.99185429e+001 -9.05671310e+000
      -1.53974676e+000 -1.46126204e+001 7.52097893e+000 6.12955761e+000
      -2.60546041e+000 2.12323189e+000 -6.67532027e-001 -6.80104876e+000
      6.55016470e+000 1.06122599e+001 -2.54341197e+000 7.42289782e+000
      6.28118181e+000 7.49655247e+000 -1.26130998e+000 7.50125122e+000
      -1.22139692e+001 4.00849676e+000 5.99316645e+000 6.60649633e+000
      1.53892398e+000 1.14409990e+001 1.07472496e+001 1.12877381e+000
      -2.22003102e+000 1.15720522e+000 -1.38949099e+001 -4.25552216e+001
      -2.49441087e-001 2.02958660e+001 6.38368130e+000 -3.20313096e+000
      3.39755082e+000 2.18337011e+000 -9.55006886e+000 1.28933287e+000
      -1.39533596e+001 -7.83155251e+000 1.78553734e+001 1.99759541e+001
      -1.74254322e+001 4.00669241e+000 2.89685535e+000 -2.16287494e+000
      -5.01198816e+000 -3.82270575e+000 -8.58576202e+000
      -4.81885672e-001 -4.06726217e+000 1.04624157e+001 -1.13561268e+001
      -5.96814013e+000 1.25732479e+001 1.18040264e+000 -3.95975733e+000
      -3.53575172e+001 -1.15915783e-001 -2.70599670e+001 1.20129156e+000
      -3.35630774e+000 -1.30471439e+001 -7.00746155e+000 2.28697491e+000
      -5.89636660e+000 2.22982216e+000 9.85630870e-001 -1.59833965e+001
      -2.29035130e+001 -1.12312329e+000 -2.38168597e+000
      -4.27484655e+000 3.23940444e+000 7.06081724e+000 -1.09206352e+001
      -1.42578983e+001 7.85555029e+000 -2.71290245e+001 -3.90395594e+000
      1.30182476e+001 6.99693727e+000 2.66343193e+001 6.26705122e+000
      -1.67286277e-001 -2.21991706e+000 -1.44394007e+001
      -8.88207912e+000 1.31805649e+001 1.34824257e+001 -2.30846429e+000
      6.19801998e-001 2.12071304e+001 1.35026293e+001 7.68769264e-001
      -8.73839283e+000 -1.54322329e+001 -9.44347954e+000 9.29862404e+000
      -4.85543871e+000 2.36404467e+000 -9.17925549e+000 1.41995707e+001
      1.16200304e+001 5.28042972e-001 4.85761213e+000 -1.38397942e+001
      -9.48803520e+000 -4.57843304e+000 1.45601625e+001 -1.01083746e+001
      1.36869202e+001 1.57992620e+001 -9.04024410e+000 4.08645058e+000
      5.12787676e+000 -1.03032484e+001 -1.96786046e+000 1.13883705e+001
      -5.15706539e+000 5.74116516e+000 -1.00490866e+001 7.73218966e+000
      3.00613904e+000 -4.79355145e+000 2.43289852e+000 1.28454370e+001
      1.98550129e+000 5.47945738e+000 -2.63675785e+000 -3.52411246e+000
      -1.22685709e+001 9.91640377e+000 5.72917509e+000 -1.06169252e+001
      -3.00922775e+000 3.12960625e+000 -1.20442677e+000 -1.02801495e+001
      7.97094488e+000 -1.25295172e+001 -3.64109445e+000 -6.53766060e+000
      8.69490051e+000 -1.92654610e+000 -1.11471903e+000 -1.13819599e+001
      -4.26454926e+000 -1.19598465e+001 -8.56080353e-001 7.52626133e+000
      -1.25058088e+001 -1.79114513e+001 2.11011028e+000 1.31347361e+001
      7.20431662e+000 3.24005556e+000 -1.18095226e+001 -1.53623981e+001
      7.96946239e+000 2.54354072e+000 -3.71991563e+000 1.63461113e+001
      2.22079682e+000 -2.20203400e+000 -6.31307602e+000 -5.75480747e+000
      2.37483114e-001 1.48107171e+000 8.63077641e-001 -6.79512978e+000
      -2.18421593e+001 -1.06100760e+001 2.24045873e+000 -1.34440422e+001
      -1.36551037e+001 -2.63111663e+000 2.56194630e+001 -6.55186176e+000
      3.95010448e+000 1.61616077e+001 -7.94054508e+000 8.85225105e+000
      9.54809189e+000 -3.75550652e+000 -1.08940868e+001 1.64121742e+001
      8.51531792e+000 2.90476024e-001 4.57273197e+000 1.26131220e+001
      -9.46570969e+000 1.88580208e+001 1.16625452e+001 -4.23211670e+000
      -6.62031078e+000 -5.53334379e+000 -1.17298460e+000
      -1.26574135e+001 -7.97569036e+000 -5.35415649e+000
      -9.00300694e+000 -1.72967186e+001 5.37531424e+000 2.57432842e+000
      9.53606510e+000 -3.19653302e-001 -4.34557408e-001 5.14207888e+000
      6.12271357e+000 8.73946381e+000 -3.64700770e+000 1.28667068e+001
      -1.06377382e+001 7.99640512e+000 2.86105499e-002 -1.22311449e+001
      3.14485168e+000 -3.39584023e-001 5.68002272e+000 -1.94589043e+001
      -1.53241882e+001 1.26100416e+001 -8.75664806e+000 -8.71112156e+000
      -2.89299726e+000 2.12608242e+000 -7.54747725e+000 2.61777954e+001
      -9.55743790e+000 -2.04797974e+001 5.72151653e-002 5.49695969e+000
      -2.25755167e+000 7.71275616e+000 -4.77080393e+000 -7.19381237e+000
      -6.49889708e+000 -4.01224422e+000 -2.77411008e+000 1.20252323e+001
      7.35756540e+000 6.90550756e+000 1.01240196e+001 -5.94468594e+000
      4.30619144e+000 9.28617287e+000 -6.33622169e+000 3.67899418e+000
      -1.41360121e+001 4.56062031e+000 -1.57772169e+001 -1.87947693e+001
      1.28680153e+001 1.53614283e+000 2.17193394e+001 1.46607904e+001
      -6.05028749e-001 -5.55107641e+000 7.39376879e+000 1.10998592e+001
      3.13252449e+000 2.40617695e+001 1.08978558e+001 -4.59285402e+000
      1.82489407e+000 -2.32741928e+000 -5.41451502e+000 1.09595623e+001
      -1.00849981e+001 1.72766726e-002 1.34578047e+001 -4.65935326e+000
      -9.64941406e+000 -9.04128075e+000 3.58233142e+000 -2.87541046e+001
      -9.77430153e+000 -1.56839905e+001 3.12134886e+000 5.65900266e-001
      -8.48092270e+000 2.24713063e+000 -1.42556787e+000 -7.10917759e+000
      -1.67959042e+001 -2.25952950e+001 2.46199322e+000 2.79492807e+000
      1.39230690e+001 9.29065037e+000 -1.89367638e+001 -4.00652021e-001
      -6.16392183e+000 -8.27184010e+000 -7.54097223e+000
      -1.14258842e+001 3.40383649e-001 -7.05839825e+000 9.91187954e+000
      6.07605219e+000 3.42882919e+000 -1.86706161e+001 1.08686037e+001
      -1.24303303e+001 -1.24239492e+000 -8.27301598e+000
      -4.02916861e+000 7.29422188e+000 7.44391775e+000 1.12402840e+001
      1.17706699e+001 4.52350044e+000 6.48965836e+000 8.22733021e+000
      1.59347117e+000 4.21174335e+000 3.49150848e+000 1.01723814e+000
      7.95165920e+000 2.05957580e+000 1.13677273e+001 -8.31040978e-001
      -5.63871384e+000 9.51649952e+000 -2.18796444e+000 2.35589504e+000
      1.68738914e+000 3.13904190e+000 -1.18889856e+001 4.68420863e-001
      -9.45686400e-002 2.59728909e-001 5.65416241e+000 1.60168886e+000
      -4.38716555e+000 -1.71313238e+000 -7.81707704e-001
      -1.75764961e+001 -6.78011465e+000 4.10259533e+000 2.56511068e+000
      -2.02938557e+001 2.58795142e+000 6.72297478e+000 -6.57352209e+000
      5.13813210e+000 5.76860309e-002 -5.55691183e-001 1.99111156e+001
      1.43559628e+001 -1.80508518e+001 -1.22190294e+001 1.44572802e+001
      4.40506744e+000 4.28602219e+000 1.66360931e+001 -7.64776766e-001
      4.64457661e-001 9.71470165e+000 9.81699848e+000 6.65313864e+000
      4.68756342e+000 1.28587351e+001 2.50843453e+000 6.96455017e-002
      -6.30274630e+000 5.55676699e-001 3.88264012e+000 2.13585901e+000
      2.98588538e+000 -1.24006233e+001 1.74293900e+000 1.24258413e+001
      -7.68224335e+000 -9.88585758e+000 -1.74941540e+001 1.01697788e+001
      -1.19443207e+001 1.18083534e+001 -6.61354828e+000 6.01303053e+000
      1.01210289e+001 8.70650673e+000 -9.55214214e+000 -4.91121173e-001
      -8.55078888e+000 4.66932774e+000 -9.01863289e+000 -4.52482510e+000
      3.17662883e+000 8.50807285e+000 4.49045372e+000 5.41881323e+000
      -8.73917961e+000 3.36858225e+000 -1.40811574e+000 -1.38606334e+000
      3.81165504e+000 5.51694727e+000 -1.01682911e+001 -1.51758728e+001
      -1.56144638e+001 1.36562614e+001 5.92685986e+000 -4.53326046e-001
      -1.46198094e+000 -3.06574440e+000 -2.65385604e+000 1.30658855e+001
      -1.73859863e+001 5.20832729e+000 -1.46965814e+000 5.44559383e+000
      2.51982284e+000 6.04815340e+000 1.29691629e+001 2.46727657e+000
      1.13779945e+001 6.34149885e+000 -1.36619053e+001 -8.22904205e+000
      -8.40480042e+000 -4.40401888e+000 7.50536823e+000 6.13699675e-001
      5.39980555e+000 1.15869665e+000 1.27633505e+001 7.19004536e+000
      4.02944374e+000 2.51899643e+001 1.55887241e+001 4.73447609e+000
      6.72149372e+000 2.12485337e+000 3.38212895e+000 -3.79632306e+000
      -1.44725256e+001 2.08802605e+001 3.38833833e+000 -5.66374683e+000
      -9.13818932e+000 -2.02942586e+000 3.44326556e-001 -2.61573162e+001
      -2.17156277e+001 1.14084530e+000 1.91381896e+000 2.74547958e+001
      3.04199433e+000 -2.38178921e+000 1.25348434e+001 1.22331352e+001
      4.07680988e+000 -2.53818340e+001 -6.59346294e+000 2.66924477e+000
      -1.65518570e+001 1.66334419e+001 6.64183474e+000 -3.68502235e+000
      -6.37343526e-001 -9.07884836e-002 -1.58028555e+001
      -4.54729460e-002 -4.90212488e+000 -4.20058584e+000
      -1.11828923e+000</_></support_vectors>
  <decision_functions>
    <_>
      <sv_count>1</sv_count>
      <rho>-3.1942363557249847e+000</rho>
      <alpha>
        1.</alpha>
      <index>
        0</index></_></decision_functions></my_svm>
</opencv_storage>
