<?xml version="1.0"?>
<opencv_storage>
<my_svm type_id="opencv-ml-svm">
  <svm_type>C_SVC</svm_type>
  <kernel><type>LINEAR</type></kernel>
  <C>3.1250000000000000e+002</C>
  <term_criteria><epsilon>9.9999997473787516e-006</epsilon>
    <iterations>1000000</iterations></term_criteria>
  <var_all>600</var_all>
  <var_count>600</var_count>
  <class_count>2</class_count>
  <class_labels type_id="opencv-matrix">
    <rows>1</rows>
    <cols>2</cols>
    <dt>i</dt>
    <data>
      -1 1</data></class_labels>
  <sv_total>1</sv_total>
  <support_vectors>
    <_>
      -1.81047306e+001 6.97361088e+000 1.25861001e+000 9.11048698e+000
      4.42786407e+000 -1.05346215e+000 7.66786456e-001 -3.32353544e+000
      -1.55241632e+000 6.52988148e+000 -5.38185740e+000 2.22391243e+001
      1.34674158e+001 1.99630661e+001 2.26273608e+000 4.65217209e+000
      -4.99095201e+000 -2.03067636e+000 -9.87052977e-001 1.07798700e+001
      2.22740517e+001 1.36504965e+001 1.78315628e+000 5.94002628e+000
      6.75337219e+000 -2.70038426e-001 -2.47955322e+000 -5.80781984e+000
      -8.83167624e-001 9.79827499e+000 -1.60018718e+000 -7.47361612e+000
      -1.39475656e+000 -4.23583061e-001 4.11888599e+000 3.83058399e-001
      -2.66293216e+000 -1.76286602e+000 -1.46013117e+000
      -1.67200813e+001 7.82461882e+000 6.57453299e+000 4.65373963e-001
      3.19046426e+000 -3.55103731e-001 1.78939664e+000 1.41591454e+000
      -3.58010483e+000 6.43896389e+000 -2.78067279e+000 3.81630301e-001
      1.25396404e+001 -1.26861393e+000 8.17829847e-001 2.61221886e+000
      -1.84452856e+000 8.49347878e+000 -1.07960534e+000 -4.12028933e+000
      -9.88596058e+000 -1.67836952e+001 3.00779800e+001 1.92035580e+001
      -2.48475015e-001 6.26981354e+000 7.63662815e+000 1.37048447e+000
      -7.86691189e+000 -1.29321873e+000 1.03613358e+001 -5.69409609e+000
      1.21031055e+001 -1.03515015e+001 -2.11973877e+001 3.57063794e+000
      -2.42352295e+000 1.02238188e+001 -5.93522215e+000 -6.95270872e+000
      2.09813929e+000 -1.48521080e+001 -1.57164230e+001 -5.17476225e+000
      -9.82178974e+000 -4.92188215e+000 -1.58748484e+000
      -2.44271898e+000 -1.99696026e+001 -2.52379227e+001 8.30166149e+000
      -1.91231136e+001 1.31864433e+001 -1.62964554e+001 9.30312824e+000
      1.58964968e+000 -3.25657511e+000 -1.52435422e+000 -2.12940526e+000
      -1.32429790e+000 -4.49986916e+001 1.17510307e+000 7.14379454e+000
      4.94041681e+000 -1.35184717e+000 -1.24778357e+001 -5.45465040e+000
      -9.75883579e+000 -2.76331401e+000 9.17163849e+000 6.64521170e+000
      1.62115788e+000 -2.02623725e+000 6.18124247e+000 -1.28483133e+001
      -9.56305981e+000 -1.98612678e+000 -1.94198000e+000 5.55166674e+000
      7.03788996e+000 3.61323380e+000 9.05603123e+000 5.82256079e+000
      4.43981695e+000 2.19500351e+001 -1.27199917e+001 1.96035516e+000
      9.13614571e-001 2.53380823e+000 6.66362345e-001 2.37956200e+001
      -4.87960911e+000 1.69279671e+001 -7.35121107e+000 -7.72267342e+000
      -1.21486645e+001 -4.50596094e+000 6.56875277e+000 2.32706380e+000
      8.45610809e+000 -1.02393312e+001 5.28841782e+000 3.37966514e+000
      5.11320162e+000 -5.14290667e+000 4.83151531e+000 7.71892166e+000
      1.05183048e+001 9.65655804e+000 4.49523115e+000 -1.16701508e+001
      1.35879927e+001 5.57470322e+000 -1.02452555e+001 1.36055231e+001
      3.27476525e+000 7.60844767e-001 2.70086122e+000 8.26780891e+000
      1.25001633e+000 -4.53356057e-001 -2.15953236e+001 1.83548105e+000
      1.09015932e+001 1.33875656e+001 -1.20517123e+000 -2.26708913e+000
      2.12011531e-001 -6.69518757e+000 7.79583812e-001 -1.43368607e+001
      1.64248392e-001 4.95737696e+000 1.07366400e+001 7.22385359e+000
      -1.32531822e-001 -5.81947565e+000 -5.37024832e+000
      -7.19659376e+000 -4.44369125e+000 8.92426777e+000 -1.48097754e+001
      1.27690256e+000 1.11186743e+001 6.78688478e+000 2.26550654e-001
      -2.12738980e-002 -2.11970711e+000 -3.58062458e+000
      -6.21611214e+000 5.29222631e+000 -2.18321552e+001 -3.79042363e+000
      1.24995732e+000 -2.47106323e+001 -4.99227762e+000 -5.19584417e+000
      -2.97647285e+000 4.05871534e+000 -1.04913995e-001 -2.35633755e+001
      -1.26567993e+001 3.97740793e+000 1.87273049e+000 3.30479860e+000
      1.44929481e+000 -5.37163079e-001 -1.30618489e+000 -1.77802718e+000
      -2.02025557e+000 5.38090134e+000 -5.38187742e-001 1.36826353e+001
      1.40042562e+001 1.30328569e+001 1.00617504e+000 -1.05766606e+000
      1.61256567e-001 -2.16959262e+000 -2.29414806e-001 -2.30883026e+000
      1.98641419e+000 -1.50044775e+000 -4.74845201e-001 9.44154167e+000
      8.56011009e+000 1.91574681e+000 2.43168640e+000 -1.13837171e+000
      6.77248657e-001 2.19828987e+001 -1.23727322e+000 -1.60016594e+001
      -2.32376480e+001 -2.26461277e+001 6.89761925e+000 1.52063072e+000
      1.58855081e+000 -8.87128174e-001 2.12198162e+000 9.18650723e+000
      -1.83099568e+000 -1.07464600e+000 -2.34351969e+000
      -5.01266003e+000 8.49473763e+000 2.64019799e+000 7.10549974e+000
      2.08047199e+000 1.76933837e+000 1.24589596e+001 -7.30522919e+000
      -1.46406155e+001 1.00444412e+000 4.70505095e+000 -1.37314444e+001
      -2.81940117e+001 -9.83309925e-001 3.82629800e+000 2.65798777e-001
      -5.67602730e+000 1.02299671e+001 2.14411902e+000 1.29607458e+001
      1.26131735e+001 6.56915712e+000 -2.28659248e+001 8.13182518e-002
      -9.93677807e+000 -3.00690055e+000 -7.90772152e+000 2.12024956e+001
      2.95941234e+000 -3.93570900e+000 -1.56434269e+001 -1.99690747e+000
      -1.68668499e+001 -2.78341460e+000 1.42855310e+001 -6.75784445e+000
      1.04835062e+001 1.06043777e+001 -4.84285355e-001 -7.41560173e+000
      -9.57695007e+000 2.69490600e+000 8.10645771e+000 -3.45876873e-001
      1.09924231e+001 -1.07540560e+001 -2.80432148e+001 6.73312378e+000
      1.52013474e+001 -1.12147522e+001 7.51827431e+000 8.16085625e+000
      -9.23231506e+000 -2.30666757e+000 1.87852371e+000 2.57677794e-001
      -1.00473928e+001 -5.47058058e+000 -1.00162325e+001
      -1.10953512e+001 -1.07726240e+000 1.03821821e+001 4.67695522e+000
      -8.91730368e-001 5.30059338e-001 1.91041164e+001 3.08963776e+000
      1.37202091e+001 4.44747591e+000 1.35861712e+001 -1.65887241e+001
      1.07618856e+001 -8.34320545e+000 -1.03097057e+001 -2.72145247e+000
      1.26634665e+001 2.45236778e+000 1.35286932e+001 -6.24243641e+000
      2.12097692e+000 1.01480503e+001 6.94606352e+000 -7.58312750e+000
      -9.74241829e+000 -1.23230925e+001 -1.97531271e+000
      -9.19275379e+000 7.91116333e+000 9.56793690e+000 6.26313257e+000
      -1.35131073e+001 -2.57055581e-001 -6.30752850e+000 6.58534193e+000
      -1.13114939e+001 -8.44252586e-001 2.55128026e+000 -1.69348371e+000
      1.44855976e+001 1.29788315e+000 2.92895222e+000 -1.22200127e+001
      5.26281309e+000 1.00433159e+001 -4.53125191e+000 1.55292952e+000
      6.29010963e+000 3.99191523e+000 -1.74609604e+001 -3.70602226e+001
      1.74825954e+001 5.71751547e+000 1.52545094e-001 1.54197705e+000
      -3.98999810e+000 -1.38837838e+000 -4.57054377e+000
      -2.26938322e-001 -9.16420746e+000 -2.19593811e+001 4.97998571e+000
      9.16842878e-001 6.45828187e-001 1.88383937e+000 2.08854318e+000
      -6.06041774e-003 -5.39848566e+000 -2.36613083e+000
      -8.77372742e+000 1.83535147e+000 6.86410284e+000 1.81339085e+000
      -1.44227028e+000 -3.57393003e+000 -3.09834743e+000
      -2.69563437e-001 1.68544686e+000 -4.05606836e-001 -3.43526125e+000
      1.27968645e+000 -7.53906250e-001 -1.51710618e+000 -2.42621803e+000
      -3.31925464e+000 -6.28696966e+000 -3.44019437e+000
      -3.07361245e+000 1.09023857e+001 1.54771290e+001 1.37834743e-001
      -6.86664283e-002 1.58871002e+001 -2.96621948e-001 1.62960548e+001
      1.58527100e+000 3.95247746e+000 7.43677139e+000 -2.61933851e+000
      -1.52825737e+000 1.63676858e+000 -1.82792258e+000 1.03580320e+000
      9.01094437e-001 -1.03696093e-001 -3.81065226e+000 -6.95575297e-001
      -6.81410456e+000 -2.51615105e+001 7.36049318e+000 3.22430825e+000
      -9.49281406e+000 6.14655972e-001 1.66379571e+000 -7.45540500e-001
      -2.24033666e+000 1.13383755e-001 7.89536381e+000 2.11636238e+001
      1.21699781e+001 5.52788353e+000 1.80500507e+000 -2.20683670e+000
      -2.10494995e+000 3.27995241e-001 1.54944587e+000 1.27465105e+000
      6.73071194e+000 -1.36077204e+001 9.42823589e-001 -2.13652458e+001
      -4.58493710e-001 5.08186817e+000 -9.45467353e-001 8.00658524e-001
      -1.04572326e-001 -4.74257648e-001 2.34778905e+000 2.31956148e+000
      1.06362200e+001 8.80049038e+000 1.10166636e+001 7.71036196e+000
      1.14405608e+000 3.15899938e-001 3.89251018e+000 1.67640781e+000
      1.17749043e+001 1.35803471e+001 -9.98209953e+000 1.47570789e+000
      1.99017286e-001 -1.66730061e+001 -8.64135742e+000 -1.62601486e-001
      4.88827419e+000 1.76870656e+000 -8.48295689e+000 3.89498085e-001
      -1.94710827e+001 -2.24629426e+000 9.85198617e-001 9.30892849e+000
      -1.80259190e+001 -1.01076775e+001 2.71113634e+000 7.65402988e-002
      -2.50155315e+001 1.78713405e+000 -5.35702801e+000 -2.79910107e+001
      -8.80600262e+000 1.12745237e+001 -1.49479618e+001 -2.15608387e+001
      -3.70068574e+000 8.03597069e+000 5.86974382e+000 1.62221928e+001
      1.04066839e+001 -1.24985826e+000 3.17951441e+000 2.55538445e+001
      -5.13794565e+000 -1.38294525e+001 9.55458069e+000 1.16712761e+001
      -7.28429556e+000 -5.14031792e+000 2.63538718e+000 1.57917190e+000
      1.59801531e+000 1.62869263e+001 -1.73325424e+001 7.10797691e+000
      1.70469856e+001 3.15523291e+000 -1.77912915e+000 2.50178957e+000
      -5.83155966e+000 -1.17721405e+001 -6.20484066e+000 6.24834919e+000
      1.24360428e+001 1.90418510e+001 -1.05532742e+001 4.21416473e+000
      -5.13575077e+000 -1.72383480e+001 -2.38710976e+000
      -7.93423939e+000 -1.30900459e+001 2.96532607e+000 -1.10558605e+001
      -5.09194469e+000 -1.59213543e+001 1.50649843e+001 1.29796381e+001
      -3.71792269e+000 9.82852364e+000 5.49494886e+000 2.31829262e+001
      3.20659161e+000 -3.41243792e+000 -1.20288429e+001 6.52564430e+000
      1.21838629e+000 -8.77422333e+000 2.15750146e+000 4.07391930e+000
      -4.73149347e+000 -7.01566410e+000 7.13433266e+000 3.87963510e+000
      1.17232227e+001 4.39176226e+000 1.24902856e+000 6.23853493e+000
      2.13269825e+001 1.48138523e+001 1.54993713e+000 1.98923912e+001
      2.74125600e+000 3.04584670e+000 4.61114883e-001 2.56905055e+000
      2.36314714e-001 1.31151743e+001 1.35113363e+001 -1.92709866e+001
      -3.05614414e+001 -1.85808334e+001 4.82135773e+000 1.26945758e+000
      5.78786421e+000 4.18159056e+000 2.94576740e+000 2.71721344e+001
      6.70179605e+000 -1.00675659e+001 -1.73937588e+001 -1.28587186e-001
      1.26135051e+000 -2.62026954e+000 3.94182950e-001 -6.48355663e-001
      -6.29074156e-001 3.90972584e-001 2.38863873e+000 -9.41816616e+000
      4.04708385e-001 -4.13309813e+000 2.98171043e+000 8.75399038e-002
      4.23589855e-001 -6.94947290e+000 -4.68527138e-001 -1.77832470e+001
      3.72473979e+000 -3.41931057e+000 -2.34896684e+000 -3.08730316e+000
      -2.97219992e-001 7.30899692e-001 -8.02546918e-001 -5.80746555e+000
      -4.24217224e+000 -2.36263485e+001 8.23734283e+000 7.50010312e-001
      -1.91674805e+001 4.29870415e+000 9.97365284e+000 5.34434199e-001
      8.00092316e+000 7.20699024e+000 9.62224007e+000 -2.53447366e+000</_></support_vectors>
  <decision_functions>
    <_>
      <sv_count>1</sv_count>
      <rho>-3.9084654795423397e+000</rho>
      <alpha>
        1.</alpha>
      <index>
        0</index></_></decision_functions></my_svm>
</opencv_storage>
