<?xml version="1.0"?>
<opencv_storage>
<my_svm type_id="opencv-ml-svm">
  <svm_type>C_SVC</svm_type>
  <kernel><type>LINEAR</type></kernel>
  <C>3.1250000000000000e+002</C>
  <term_criteria><epsilon>9.9999997473787516e-006</epsilon>
    <iterations>1000000</iterations></term_criteria>
  <var_all>600</var_all>
  <var_count>600</var_count>
  <class_count>2</class_count>
  <class_labels type_id="opencv-matrix">
    <rows>1</rows>
    <cols>2</cols>
    <dt>i</dt>
    <data>
      -1 1</data></class_labels>
  <sv_total>1</sv_total>
  <support_vectors>
    <_>
      8.69549561e+000 1.18826513e+001 1.04986858e+001 8.07999992e+000
      -8.28040981e+000 -2.29296780e+000 -1.26306477e+001 1.01296482e+001
      2.84050884e+001 1.74640713e+001 -1.00997782e+001 1.82547169e+001
      2.52262135e+001 -5.51706791e+000 -5.31355906e+000 -3.63286281e+000
      -1.79229796e+000 -1.05289669e+001 2.34716907e-002 -8.32017601e-001
      2.84649830e+001 9.62029362e+000 6.93409061e+000 1.36278582e+001
      1.84861100e+000 -5.68534946e+000 -1.74555397e+001 -1.11864424e+001
      -2.61796474e+000 -3.45868301e+000 1.36466229e+000 6.88871241e+000
      -5.91703510e+000 1.69145145e+001 -3.65706468e+000 -1.55365479e+000
      -9.94252396e+000 -1.03048916e+001 1.52991605e+000 -4.12725925e+000
      1.06742115e+001 7.20132399e+000 -4.27330256e+000 -1.48975697e+001
      -2.34444678e-001 3.99677634e+000 6.71692228e+000 5.67192602e+000
      2.22934380e+001 -1.02806835e+001 -8.47648621e+000 2.06253109e+001
      1.38190575e+001 5.47206211e+000 6.10518456e+000 2.27725677e+001
      1.87366235e+000 -7.56316519e+000 2.04920664e-001 9.36090660e+000
      -3.19284897e+001 5.67242765e+000 -8.53335953e+000 -7.13368988e+000
      1.61635094e+001 1.02326708e+001 5.09679127e+000 -2.25370932e+000
      -1.13741755e+000 -1.39721565e+001 -9.40550327e+000
      -3.85099125e+000 -5.77271938e+000 -2.10599346e+001 9.88080978e+000
      9.53575134e+000 -5.29433393e+000 -1.09399014e+001 -4.44198036e+000
      -1.12405157e+001 -9.71206856e+000 -3.25414538e+000
      -1.10303888e+001 -1.40975008e+001 -4.56553727e-001 8.67965603e+000
      -1.63457823e+000 -2.38447704e+001 -1.63115845e+001
      -7.91523600e+000 -1.98325081e+001 2.72121735e+001 -2.23365521e+000
      -2.03558369e+001 -9.20483398e+000 -8.48562717e+000 3.60630393e-001
      -1.38130510e+000 -7.01400578e-001 2.06060004e+000 -3.50269270e+000
      -1.02850132e+001 -1.35979986e+001 1.69205456e+001 -1.65260696e+001
      6.48119926e+000 -1.41513071e+001 9.13024807e+000 1.18879128e+001
      -7.09689713e+000 -2.10986018e+000 -1.17198620e+001 3.57163286e+000
      1.81853123e+001 -1.04611635e+001 1.49537909e+000 1.11897075e+000
      2.07425652e+001 8.68476677e+000 8.66489410e+000 1.41395464e+001
      3.90532303e+000 5.05833149e+000 2.16255951e+001 4.64134407e+000
      9.97637367e+000 -8.89039898e+000 6.41308498e+000 7.19649792e-001
      3.31098890e+000 4.78017664e+000 1.85055885e+001 -9.54305553e+000
      -9.51520443e-001 -1.65923405e+001 8.47756481e+000 7.56937838e+000
      -2.51605392e+000 2.86516213e+000 -1.73592043e+000 -3.03374362e+000
      7.66582775e+000 1.19996624e+001 -5.20986223e+000 7.95362520e+000
      5.41590023e+000 6.22525358e+000 -3.10004210e+000 8.85940933e+000
      -1.20522976e+001 3.65480947e+000 4.19217491e+000 6.67057896e+000
      2.20925879e+000 1.35578232e+001 8.87128067e+000 1.62680590e+000
      -1.24729431e+000 1.09296381e+000 -1.25285158e+001 -4.43953857e+001
      3.07959735e-001 1.84426174e+001 7.00885534e+000 -1.61132348e+000
      1.45698261e+000 2.25112391e+000 -1.06264439e+001 1.38893199e+000
      -1.28317261e+001 -8.18126202e+000 1.90932407e+001 2.07628975e+001
      -1.91202259e+001 5.55897331e+000 2.14773989e+000 -1.61505997e+000
      -3.55979514e+000 -2.21893573e+000 -8.23832226e+000
      -4.23424214e-001 -2.02529025e+000 1.18000412e+001 -8.90030956e+000
      -5.27441216e+000 1.26562500e+001 1.26029360e+000 -5.32046223e+000
      -3.13002338e+001 -5.26886545e-002 -2.72069378e+001 1.29802537e+000
      -2.89018393e+000 -1.48402472e+001 -7.12175989e+000 1.65297568e+000
      -6.44509315e+000 1.57924986e+000 1.00838065e+000 -1.50575619e+001
      -2.17351723e+001 -1.24969637e+000 -2.19073725e+000
      -6.46931553e+000 2.09090877e+000 5.51919937e+000 -1.13363104e+001
      -1.57060213e+001 1.01711645e+001 -2.83981590e+001 -5.09575605e+000
      1.44438133e+001 8.02363968e+000 2.28935127e+001 3.65548277e+000
      5.07388651e-001 -2.85516763e+000 -1.50135241e+001 -7.95474625e+000
      1.36768265e+001 1.19776478e+001 -2.21161938e+000 -4.92901951e-001
      2.06248379e+001 1.59992151e+001 6.53541148e-001 -9.87317276e+000
      -1.66442986e+001 -9.10955334e+000 1.02209005e+001 -6.59944630e+000
      2.85493445e+000 -1.14329224e+001 1.43944035e+001 1.36540098e+001
      -7.67959416e-001 3.27276969e+000 -1.50337896e+001 -8.51492786e+000
      -3.57457185e+000 1.46951427e+001 -9.40938377e+000 1.36775579e+001
      1.64832115e+001 -9.85009861e+000 4.38444805e+000 4.43975544e+000
      -1.07565088e+001 -2.27182603e+000 1.04262390e+001 -4.43690634e+000
      3.24826121e+000 -9.60172749e+000 9.64204311e+000 3.75688577e+000
      -4.43665838e+000 2.10866690e+000 1.29088755e+001 1.43601465e+000
      7.23395538e+000 -4.43689728e+000 -3.25171351e+000 -1.37583017e+001
      1.14695034e+001 7.69412994e+000 -1.10097351e+001 -2.92662573e+000
      3.04909945e+000 -1.11788452e+000 -8.50877476e+000 8.46961880e+000
      -1.18571157e+001 -4.43773460e+000 -8.60870934e+000 9.66106606e+000
      -1.87410462e+000 7.56478727e-001 -1.06437044e+001 -4.43505764e+000
      -1.00641365e+001 -2.44311020e-001 5.39095879e+000 -1.24422216e+001
      -1.83048096e+001 2.39539647e+000 1.33857460e+001 6.14416313e+000
      6.34659243e+000 -7.14532375e+000 -1.69151115e+001 8.38689613e+000
      4.13739300e+000 -4.19703150e+000 1.76254406e+001 1.33174956e+000
      -6.53319299e-001 -5.87594557e+000 -6.17660284e+000 2.58373410e-001
      1.19347358e+000 6.61040187e-001 -4.54703856e+000 -2.04191437e+001
      -9.68127632e+000 1.61305463e+000 -1.23978481e+001 -1.48577204e+001
      -3.62111712e+000 2.48939724e+001 -6.06237364e+000 4.47880077e+000
      1.31521492e+001 -7.24759007e+000 7.18693781e+000 9.38219833e+000
      -5.72482526e-001 -9.05009937e+000 1.56415310e+001 7.69484568e+000
      1.11495042e+000 3.24154592e+000 1.26575918e+001 -8.83311367e+000
      1.60518589e+001 1.05921974e+001 -2.33529282e+000 -6.91729355e+000
      -4.36033154e+000 -5.35333693e-001 -8.90972710e+000
      -5.92794418e+000 -7.56117678e+000 -8.10638618e+000
      -1.82036724e+001 4.11059141e+000 2.35184646e+000 1.02767239e+001
      -2.21145463e+000 2.06669480e-001 4.37867928e+000 9.45784473e+000
      1.06168518e+001 -1.77300656e+000 1.19750881e+001 -1.18387175e+001
      6.94716787e+000 -9.95021284e-001 -1.20199051e+001 2.94329572e+000
      -6.57775402e-001 2.84491730e+000 -1.76687469e+001 -1.46384850e+001
      1.21847038e+001 -8.80663490e+000 -7.50507307e+000 -3.82629967e+000
      3.16628575e+000 -7.65161705e+000 2.36653137e+001 -8.12676620e+000
      -2.02304554e+001 3.68574947e-001 6.52025986e+000 -4.14201403e+000
      7.53606987e+000 -6.03147745e+000 -7.27321768e+000 -6.47049046e+000
      -7.83657980e+000 -2.11141491e+000 1.06453819e+001 7.11715317e+000
      6.56644678e+000 9.79858494e+000 -7.32375240e+000 2.59136677e+000
      8.28876400e+000 -6.94082308e+000 3.69313574e+000 -1.24849234e+001
      3.97841883e+000 -1.49392052e+001 -1.74972229e+001 1.44067659e+001
      3.32621765e+000 1.98133984e+001 1.37231150e+001 -1.45510054e+000
      -4.87798977e+000 5.71718597e+000 1.19480066e+001 5.32520151e+000
      2.53221092e+001 1.16016121e+001 -4.24751329e+000 1.00532019e+000
      -2.46688175e+000 -5.06830645e+000 1.16188354e+001 -9.12097263e+000
      3.50003928e-001 1.58341017e+001 -5.69074059e+000 -9.32871437e+000
      -8.69228077e+000 5.54336357e+000 -2.83852348e+001 -9.99502087e+000
      -1.67341061e+001 1.76839423e+000 1.47173643e-001 -8.07274914e+000
      3.08979201e+000 -5.97675264e-001 -7.05689526e+000 -1.93396797e+001
      -2.25710011e+001 2.47993851e+000 2.87944484e+000 1.48642044e+001
      8.68489361e+000 -1.72003727e+001 8.41093779e-001 -8.24758911e+000
      -7.11581850e+000 -7.90198421e+000 -9.32600784e+000
      -2.23475024e-002 -6.51887655e+000 1.27360182e+001 7.19112301e+000
      1.08820713e+000 -1.92105961e+001 9.40180588e+000 -1.44865007e+001
      -1.61425292e+000 -7.82438040e+000 -3.84922266e+000 6.45415020e+000
      6.77501011e+000 1.39150820e+001 9.59367943e+000 7.25580883e+000
      5.63746405e+000 8.10812664e+000 1.69882309e+000 3.90277600e+000
      3.40545368e+000 1.57452404e+000 7.61807060e+000 2.76807618e+000
      1.14717026e+001 -1.07159829e+000 -6.99920273e+000 1.10901737e+001
      -2.26211572e+000 1.48653436e+000 1.64705884e+000 4.11163950e+000
      -1.28625326e+001 1.19117248e+000 -1.90247774e-001 7.00596750e-001
      4.50372934e+000 2.04001284e+000 -4.47965574e+000 -1.94537878e+000
      -8.26719522e-001 -1.81761208e+001 -5.09399939e+000 3.82928276e+000
      2.42832994e+000 -1.90575638e+001 3.95775408e-001 6.13023043e+000
      -6.10836458e+000 6.05097151e+000 1.16191733e+000 -1.05876178e-001
      2.01268539e+001 1.43734121e+001 -1.76856174e+001 -1.24664316e+001
      1.33739872e+001 5.00654745e+000 4.44028378e+000 1.71701660e+001
      1.46184003e+000 1.21811950e+000 9.84343338e+000 9.63600636e+000
      7.02112627e+000 3.81184244e+000 1.12345333e+001 1.98329020e+000
      5.51593006e-001 -7.25359344e+000 5.67087531e-001 3.72529769e+000
      -5.94436169e-001 2.19969273e+000 -1.11001406e+001 4.68155146e+000
      1.22174606e+001 -6.93403959e+000 -9.56227303e+000 -1.77121105e+001
      9.24477482e+000 -1.25298986e+001 9.41626740e+000 -4.71425962e+000
      7.13544989e+000 9.53825188e+000 8.00248241e+000 -1.06954355e+001
      -3.73841673e-001 -9.80435371e+000 4.31484461e+000 -9.36653900e+000
      -4.59883642e+000 1.70621347e+000 7.96127319e+000 5.76826715e+000
      4.72240543e+000 -6.06925678e+000 1.92593741e+000 -1.83174682e+000
      -1.26639247e+000 4.66677189e+000 6.06088781e+000 -1.13136368e+001
      -1.70729256e+001 -1.65216255e+001 1.08933067e+001 5.69272852e+000
      -1.27685225e+000 -1.16072154e+000 -3.11332297e+000
      -1.21239054e+000 1.29750051e+001 -1.56105709e+001 9.26485920e+000
      -4.79727507e-001 5.00115681e+000 3.53537416e+000 5.95430946e+000
      1.26339197e+001 2.31264710e+000 1.16957550e+001 7.33305311e+000
      -1.57132540e+001 -8.27305984e+000 -9.77542210e+000
      -5.81639719e+000 7.94626713e+000 1.63898623e+000 4.86875629e+000
      1.25126851e+000 1.13347797e+001 8.64662552e+000 7.43660545e+000
      2.50338707e+001 1.64939251e+001 5.02290010e+000 5.03467274e+000
      3.25000978e+000 2.32890129e+000 -3.86668611e+000 -1.52204342e+001
      2.34197407e+001 5.62331104e+000 -6.55465841e+000 -9.26117992e+000
      -3.88975024e+000 1.37019312e+000 -2.76855564e+001 -2.49754028e+001
      1.97181046e-001 2.26042318e+000 2.22516060e+001 4.00744820e+000
      -3.55407405e+000 1.36613646e+001 1.41084604e+001 6.46300840e+000
      -2.61780872e+001 -6.59339190e+000 5.37103462e+000 -1.68304615e+001
      1.75119495e+001 5.41948080e+000 -4.83337212e+000 4.97102201e-001
      -1.48768711e+000 -1.53431282e+001 -1.83076775e+000
      -5.18263388e+000 -4.10416317e+000 -1.32272589e+000</_></support_vectors>
  <decision_functions>
    <_>
      <sv_count>1</sv_count>
      <rho>-3.1200349032706285e+000</rho>
      <alpha>
        1.</alpha>
      <index>
        0</index></_></decision_functions></my_svm>
</opencv_storage>
