<?xml version="1.0"?>
<opencv_storage>
<my_svm type_id="opencv-ml-svm">
  <svm_type>C_SVC</svm_type>
  <kernel><type>LINEAR</type></kernel>
  <C>6.2500000000000000e+001</C>
  <term_criteria><epsilon>9.9999997473787516e-006</epsilon>
    <iterations>1000000</iterations></term_criteria>
  <var_all>62</var_all>
  <var_count>62</var_count>
  <class_count>2</class_count>
  <class_labels type_id="opencv-matrix">
    <rows>1</rows>
    <cols>2</cols>
    <dt>i</dt>
    <data>
      -1 1</data></class_labels>
  <sv_total>1</sv_total>
  <support_vectors>
    <_>
      1.40142000e+000 -3.82779646e+000 2.15484309e+000 -1.44791377e+000
      -2.38323331e+000 -2.60614181e+000 -3.37303340e-001
      -8.96757066e-001 -2.45898438e+000 -3.17866373e+000 4.67390585e+000
      -2.65855622e+000 4.32516050e+000 -2.98999763e+000 -5.71913576e+000
      -1.30974603e+000 -2.51058650e+000 -2.23915982e+000
      -3.15115047e+000 -2.09539676e+000 1.65052101e-001 3.21895838e+000
      -2.50337291e+000 6.15012789e+000 6.22959566e+000 6.22531700e+000
      4.55645370e+000 3.61339307e+000 4.65073538e+000 -5.05104780e+000
      3.51294816e-001 2.38139296e+000 -1.61191914e-002 3.46777296e+000
      1.13442695e+000 2.25486112e+000 2.86753368e+000 3.02992320e+000
      1.59445167e+000 1.56778836e+000 2.22607589e+000 3.29570365e+000
      3.15914488e+000 1.46113861e+000 4.11750221e+000 -8.60246658e+000
      7.07973337e+000 1.86354995e+000 1.93998945e+000 4.97942591e+000
      2.17447853e+000 4.82444763e+000 -7.46345711e+000 3.69738650e+000
      -8.95578098e+000 -6.90791702e+000 -1.11226664e+001
      -1.19064884e+001 -4.72082138e+000 4.01474142e+000 -4.05417061e+000
      2.67130315e-001</_></support_vectors>
  <decision_functions>
    <_>
      <sv_count>1</sv_count>
      <rho>-1.3350158920158404e+000</rho>
      <alpha>
        1.</alpha>
      <index>
        0</index></_></decision_functions></my_svm>
</opencv_storage>
