<?xml version="1.0"?>
<opencv_storage>
<my_svm type_id="opencv-ml-svm">
  <svm_type>C_SVC</svm_type>
  <kernel><type>LINEAR</type></kernel>
  <C>5.0000000000000000e-001</C>
  <term_criteria><epsilon>9.9999997473787516e-006</epsilon>
    <iterations>1000000</iterations></term_criteria>
  <var_all>800</var_all>
  <var_count>800</var_count>
  <class_count>2</class_count>
  <class_labels type_id="opencv-matrix">
    <rows>1</rows>
    <cols>2</cols>
    <dt>i</dt>
    <data>
      -1 1</data></class_labels>
  <sv_total>1</sv_total>
  <support_vectors>
    <_>
      -4.00364995e-001 -7.96314001e-001 -1.68583289e-001
      -1.95737451e-001 -1.46647155e-001 3.08708310e-001 1.50093269e-002
      1.30001279e-002 -8.10507357e-001 -2.15197906e-001 -1.61758900e-001
      1.74222797e-001 -2.86698699e-001 -1.67369694e-001 -1.58223152e-001
      -1.09867024e+000 -4.18325901e-001 -1.89196423e-001
      -3.14836383e-001 -8.51502359e-001 -1.29981279e+000
      -3.24602723e-001 -2.74584800e-001 -4.02736425e-001
      -7.69169629e-001 -4.55346316e-001 -6.68429375e-001
      -4.52291220e-001 -4.25990582e-001 -4.08970684e-001
      -4.64508384e-001 -3.82791460e-001 -6.07528508e-001 2.92232007e-001
      3.89939159e-001 -5.27623177e-001 -7.61424959e-001 -1.06501222e-001
      -1.80130050e-001 -8.24079752e-001 -6.26301944e-001
      -2.98023075e-001 5.26504397e-001 -7.46318221e-001 -7.65889704e-001
      -8.55919067e-003 3.60769987e-001 -5.14247060e-001 -4.04669285e-001
      -1.90321326e-001 -4.17237759e-001 1.66722201e-002 -3.24552730e-002
      2.38189772e-002 -3.76060426e-001 -2.79419899e-001 -1.26269326e-001
      -1.53546900e-001 1.40442580e-001 -3.95548105e-001 -2.72132814e-001
      1.23322189e-001 -2.69757420e-001 1.31642073e-001 -7.57820129e-001
      -3.15521151e-001 2.86039591e-001 -4.12547797e-001 -9.38782841e-002
      9.88983437e-002 2.86025077e-001 -5.06894171e-001 -4.02966231e-001
      2.98165619e-001 9.96647924e-002 -6.12815320e-002 1.44367799e-001
      1.79167166e-001 -1.92212164e-001 -1.15364216e-001 -4.78486925e-001
      -1.15997866e-001 5.04792184e-002 -3.79849881e-001 -5.50337851e-001
      2.08073422e-001 -2.96151370e-001 -2.95218229e-001 -5.35150729e-002
      4.18635786e-001 -1.00966796e-001 -2.66228933e-002 -1.32297903e-001
      2.55345255e-001 -2.23190024e-001 -4.01000679e-001 -6.39983892e-001
      2.96943933e-001 -8.90030190e-002 -2.99419045e-001 -1.56549588e-001
      -2.84024011e-002 -3.18259597e-001 -4.41281587e-001
      -5.39798260e-001 -7.51769021e-002 3.13399464e-001 -1.37033507e-001
      -7.53419548e-002 4.73866612e-001 3.03420633e-001 -5.12234449e-001
      -5.16842961e-001 2.77140051e-001 -5.35892487e-001 1.63374767e-002
      -9.95044559e-002 6.00171685e-002 -3.02717537e-001 -5.24947643e-001
      -3.44026238e-001 2.77729124e-001 -4.72647026e-002 -4.46240127e-001
      1.18723921e-001 2.76198357e-001 -7.30709508e-002 -2.73617804e-001
      -9.56067860e-001 -4.31944907e-001 7.99395889e-002 4.56299335e-001
      5.15797660e-002 2.32022673e-001 1.18278936e-002 -9.31190193e-001
      -3.95013630e-001 1.34755999e-001 2.78903842e-001 -4.92565423e-001
      -6.39052629e-001 -1.41752690e-001 -2.94714093e-001
      -5.51971376e-001 -5.93093276e-001 1.62524730e-001 -5.16726598e-002
      -8.33010674e-001 -3.83805856e-002 -3.02206427e-001
      -4.62445796e-001 -4.76440400e-001 2.40022033e-001 3.47399294e-001
      -8.41406267e-003 -1.15031981e+000 -5.02459049e-001
      -1.18123502e-001 -4.28309068e-002 -1.08582832e-001 1.27609625e-001
      -6.08016551e-002 -1.30849943e-001 -6.67977631e-001
      -1.02590346e+000 -2.52996087e-001 -1.05612248e-001
      -1.25458360e-001 8.97715092e-002 1.97339103e-001 -2.08771616e-001
      -4.71742094e-001 -1.02705091e-001 -6.34416193e-002 1.66110508e-002
      6.45655096e-002 -1.03208877e-001 -1.74278915e-001 -2.67645568e-001
      -4.60360199e-001 -3.93207371e-001 5.24546765e-002 2.04662457e-001
      -7.04491660e-002 -4.29910481e-001 -1.83856234e-001
      -3.15886945e-001 -2.09004536e-001 3.63969393e-002 7.24587124e-003
      2.18303487e-001 2.14404929e-002 -5.43782152e-002 -1.63597569e-001
      -1.49101049e-001 -2.55463809e-001 2.15380982e-001 2.94776648e-001
      -3.46515566e-001 -3.43395621e-002 -4.90768114e-003
      -1.97471961e-001 4.13486771e-002 -4.60167766e-001 -6.17522120e-001
      4.35085967e-002 -4.50559586e-001 -1.48742544e-002 -4.77556586e-001
      -2.45512754e-001 -2.57109344e-001 -1.72652975e-001
      -8.49229842e-003 -2.61828661e-001 -2.14438975e-001
      -1.12207025e-001 -2.40167677e-001 -3.48578751e-001
      -1.26332477e-001 1.69790983e-002 -2.40462318e-001 -2.42861763e-001
      -2.54104465e-001 -1.84630662e-001 -2.01801360e-001 8.45936313e-002
      1.65546775e-001 -2.36579061e-001 -4.06458676e-001 4.42611039e-001
      -3.06397211e-002 -2.66380701e-002 3.59398752e-001 3.06117564e-001
      -6.13285825e-002 -1.24405891e-001 -1.09424643e-001 2.52899736e-001
      1.67314053e-001 1.86225638e-001 -4.40435916e-001 -2.04613730e-001
      -2.33006299e-001 -6.02974296e-002 -2.10358694e-001 1.21620469e-001
      2.17723429e-001 -7.30582595e-001 -4.45939936e-002 -6.48250580e-002
      -2.58815229e-001 -1.18018657e-001 -3.95773888e-001 3.81874561e-001
      3.71315747e-001 1.16013259e-001 -2.90838301e-001 2.27029383e-001
      -4.03057724e-001 -2.02109247e-001 -1.72554459e-002
      -9.77244750e-002 -2.18591783e-002 6.07147589e-002 -8.01522136e-002
      8.26456118e-003 -1.81097665e-003 -1.96204111e-001 2.14252658e-002
      2.40318894e-001 -3.46195921e-002 3.57663065e-001 -4.43474472e-001
      -1.00598738e-001 -2.66682595e-001 -3.96851391e-001
      -4.78256762e-001 8.30349177e-002 2.97052599e-003 1.44618586e-001
      -3.58487308e-001 5.40995225e-002 -2.71381557e-001 -2.33500823e-001
      -1.60794288e-001 -1.94166735e-001 1.49313599e-001 6.78620040e-002
      -2.98479825e-001 2.03720033e-001 7.41150603e-002 -6.93968594e-001
      -4.25376922e-001 7.09641650e-002 -6.26132563e-002 1.90659538e-001
      -8.87842104e-002 2.49867916e-001 -1.72550559e-001 -8.56026411e-001
      -5.10047436e-001 1.53821573e-001 8.92342255e-002 -1.56888872e-001
      -5.54525733e-001 -1.48949131e-001 -3.28209937e-001
      -4.81390893e-001 -6.10174060e-001 -3.74839634e-001
      -3.67036283e-001 -1.58330292e-001 -2.07851782e-001
      -5.60073706e-004 -1.41067475e-001 -2.80540973e-001
      -5.88131905e-001 -1.54289395e-001 1.41021967e-001 -6.22600433e-004
      3.00217550e-002 5.91634884e-002 7.44243413e-002 -5.54515839e-001
      -5.55574596e-001 -2.73793787e-002 1.29787222e-001 -7.53685087e-002
      -5.61728716e-001 -2.74977475e-001 -2.36968666e-001
      -2.53922790e-001 -1.86229005e-001 -1.32371664e-001 1.09333787e-002
      -6.87297136e-002 -1.47976011e-001 -1.29771158e-002 2.54020959e-001
      -3.22925419e-001 -6.16615236e-001 5.56418449e-002 -9.03098807e-002
      -1.40891328e-001 -4.43142325e-001 -1.30395934e-001
      -3.04280198e-003 -2.44355679e-001 -7.11646304e-002
      -1.70606866e-001 -2.69611329e-001 -6.77559897e-002
      -3.99299860e-001 -2.85654604e-001 -4.41502303e-001
      -2.82954514e-001 8.05992559e-002 -5.48864186e-001 -2.29679108e-001
      -2.23110333e-001 -1.13319419e-002 -1.99395955e-001
      -3.15246642e-001 -8.45291540e-002 -2.39225775e-001
      -3.57822865e-001 -3.75940621e-001 -2.56159216e-001
      -4.14040297e-001 -1.33596271e-001 -1.49592325e-001
      -1.97170720e-001 -6.62624389e-002 -5.24876535e-001
      -4.00827855e-001 -3.29628438e-001 -3.39993425e-002
      -7.75708407e-002 -3.56926650e-001 -1.09510481e-001
      -2.03519449e-001 1.15047462e-001 -3.76964331e-001 -2.01543301e-001
      -2.58779198e-001 9.37935039e-002 -3.98245424e-001 -2.22099140e-001
      -2.58832514e-001 -2.02199519e-001 -6.15696087e-002
      -6.96885765e-001 -3.15288633e-001 1.49700657e-001 -3.35801452e-001
      1.20583139e-001 -8.61653090e-002 2.03473836e-001 4.03897524e-001
      -5.27593084e-002 -2.74149626e-001 5.98996915e-002 -2.50341445e-001
      6.02574348e-002 -2.22733840e-001 2.89268136e-001 -1.09570347e-001
      -2.18944028e-001 -3.13819855e-001 2.30638236e-001 -3.24230015e-001
      3.94897997e-001 -1.80609718e-001 -2.71825820e-001 1.53407350e-001
      -1.27057269e-001 -7.82579958e-001 1.28059447e-001 -2.15170681e-001
      -1.93776786e-001 -1.10515945e-001 -3.62005174e-001
      -6.71254769e-002 -3.57468784e-001 -2.76102424e-001 1.98200405e-001
      -9.24623534e-002 -2.36876905e-001 8.02037194e-002 -4.61976826e-001
      2.85782963e-001 -3.23745072e-001 -3.28228921e-001 1.94626212e-001
      -8.88253376e-002 -6.71501234e-002 -1.19846985e-001
      -4.53130752e-001 1.09476075e-001 -1.97416067e-001 -3.74487579e-001
      -1.64666921e-001 -5.16654789e-001 3.43735777e-002 -9.14881825e-002
      -2.59164989e-001 2.33245984e-001 1.56841334e-002 -4.75072414e-001
      -1.49869725e-001 -2.07646415e-001 -4.64318961e-001
      -5.80262542e-001 -5.72155297e-001 -2.03809217e-001
      -5.13758481e-001 -1.38462111e-001 -6.46957830e-002
      -2.79281139e-001 -4.12307709e-001 -5.91185689e-001
      -7.69063607e-002 2.15486020e-001 -3.39133362e-003 -1.52012736e-001
      -3.41806382e-001 -3.23334843e-001 3.88383605e-002 1.83139384e-001
      -4.53548908e-001 -8.46405178e-002 3.32558970e-003 -3.05164456e-001
      1.07857540e-001 -8.77223760e-002 -6.95390880e-001 -9.16213334e-001
      6.30812813e-003 -3.83835025e-002 -3.18779111e-001 -5.52537739e-001
      -5.33667989e-002 1.78117052e-001 -4.43746418e-001 -6.20637774e-001
      1.75556362e-001 -2.51360714e-001 -3.72984648e-001 -1.46036386e-001
      1.92741007e-001 1.15787297e-001 -4.54566300e-001 -2.07028046e-001
      -3.19669873e-001 -3.97019953e-001 1.15440421e-001 -1.02858528e-001
      7.67184719e-002 -1.72289386e-002 -3.67010683e-001 -2.37660974e-001
      2.97530413e-001 3.04529238e-002 -9.42908302e-002 -3.32416967e-002
      -1.74557269e-001 1.15152389e-001 -3.20766240e-001 -2.31961906e-001
      -1.89508334e-001 6.09281585e-002 4.23925892e-002 -2.10330233e-001
      -1.27645791e-001 -1.29453242e-001 -2.20818177e-001
      -5.87130636e-002 -7.88055658e-001 -5.52513957e-001
      -1.91799358e-001 -2.88792253e-001 -2.26902798e-001
      -3.21217775e-001 -3.95743728e-001 -4.65978682e-001
      -3.18434611e-002 -5.44834256e-001 -8.05630386e-002
      -5.03539085e-001 -1.70460165e-001 1.84740007e-001 -2.44570181e-001
      7.01503754e-002 -3.34658563e-001 -1.34470388e-001 -2.39689127e-001
      -1.50585398e-001 -6.75093949e-001 -1.11454196e-001
      -8.00939351e-002 -4.13581401e-001 -1.20193407e-001
      -5.71757793e-001 2.25742552e-002 -4.37620401e-001 3.27009141e-001
      -1.69276271e-003 6.25032559e-002 -1.92732550e-002 1.36109963e-001
      -1.42335504e-001 -1.76106140e-001 -2.19368055e-001 2.94670820e-001
      -3.61738801e-001 -6.52793571e-002 -2.49095663e-001
      -3.36749136e-001 6.88701421e-002 -3.39920968e-002 -1.31637538e-002
      -1.06817475e-002 6.01115227e-002 -1.07671218e-002 -1.75992593e-001
      -6.94822669e-002 -2.98006356e-001 -2.12221339e-001 4.30030935e-002
      2.01384470e-001 -3.58427674e-001 -2.55382687e-001 -3.51766348e-001
      4.78105880e-002 2.90707409e-001 4.07218099e-001 -2.99715579e-001
      3.32466304e-001 1.85583487e-001 -2.25062594e-001 -5.19498885e-002
      -2.24684522e-001 2.02991739e-001 -4.46108095e-002 -3.87020230e-001
      -1.57660171e-001 -2.47222424e-001 -4.67987955e-002
      -1.28983241e-003 -1.75082043e-001 2.48954713e-001 -9.45413671e-003
      -3.94143164e-001 1.68526024e-001 -2.36411214e-001 -3.08147311e-001
      -3.09709817e-001 -1.12057775e-001 1.26210228e-001 -7.95103982e-003
      -2.21543178e-001 6.95457608e-002 -6.46865666e-002 1.68812051e-002
      -9.86565053e-002 -1.69754401e-001 1.12335399e-001 -7.39680454e-002
      -4.20574397e-001 -4.33459103e-001 -2.66885042e-001
      -6.51557684e-001 -4.71814424e-001 -6.45323217e-001
      -2.17448741e-001 -1.76716238e-001 -9.74446759e-002
      -1.17383366e-002 1.88467339e-001 -5.43581963e-001 -7.21898973e-001
      -1.09179564e-001 -1.22571111e-001 -1.05264686e-001
      -4.11774337e-001 -2.26841807e-001 -1.17437623e-001
      -5.56921773e-002 -3.60497475e-001 -7.01704204e-001
      -3.07443619e-001 -1.86820120e-001 -4.51063439e-002 4.07640874e-001
      6.06723905e-001 -3.67812514e-001 -3.66002142e-001 -2.01779202e-001
      -5.12799472e-002 -1.58428922e-001 4.10695970e-001 -4.71548997e-002
      -4.10847887e-002 -8.81684184e-001 -3.36013913e-001 3.33169438e-002
      -1.03762941e-002 1.07047848e-001 1.24279913e-002 -1.20956421e-001
      -2.44375631e-001 -3.97128284e-001 -5.97924352e-001
      -6.03679836e-001 -6.44052982e-001 -1.33889422e-001
      -1.06320632e+000 -2.24397629e-001 5.00890136e-001 2.53354967e-001
      -4.93679851e-001 -1.38233587e-001 -3.10259730e-001
      -5.96192360e-001 -1.13036120e+000 -6.85606971e-002 2.98799038e-001
      -2.61271000e-001 -4.22576010e-001 -3.08600336e-001
      -2.92423248e-001 -6.29319131e-001 -2.80293018e-001
      -1.95330884e-002 1.33259539e-002 -1.37358859e-001 -1.53106272e-001
      -2.98892230e-001 -4.67636973e-001 -1.75632790e-001
      -4.98198569e-001 -6.42923236e-001 1.24312018e-003 -3.40313055e-002
      -5.16018271e-001 1.24096833e-001 -4.21875209e-001 -4.25282717e-001
      -8.73883307e-001 -1.96889073e-001 3.12895954e-001 -4.62989248e-002
      -1.67934597e-001 2.02673282e-002 1.70614451e-001 -1.73551649e-001
      -3.52082253e-001 -6.20472968e-001 -2.02106778e-002
      -2.16590285e-001 -4.24771547e-001 2.15398297e-001 4.52009559e-001
      9.10417512e-002 -5.11716843e-001 -2.25593790e-001 7.74013177e-002
      -6.59338608e-002 -4.68388468e-001 -1.11175872e-001
      -4.46472377e-001 -7.14073241e-001 -3.64178807e-001
      -1.85810670e-001 1.51143745e-001 -2.79673487e-001 -5.53111434e-001
      -8.24127253e-003 1.35732770e-001 -2.66469032e-001 -7.82237113e-001
      -3.91078979e-001 -1.35572538e-001 3.23725753e-002 -1.87760815e-001
      6.14689663e-002 4.02283162e-001 -2.65764177e-001 -6.28270030e-001
      -6.75836904e-003 -1.11282624e-001 -2.18588024e-001 3.02703790e-002
      -1.64665096e-002 -2.86275953e-001 -2.35259801e-001
      -4.94017988e-001 -1.16068441e-002 -1.74462218e-002
      -1.36242509e-001 -3.83038968e-001 -1.28999665e-001
      -1.15454011e-002 -3.42165947e-001 -3.42444181e-001
      -7.32805356e-002 7.22032562e-002 2.57801324e-001 -2.48219281e-001
      -2.18387678e-001 -1.84356317e-001 -2.26369396e-001
      -5.45561910e-001 3.28106493e-001 7.64133707e-002 -3.26629639e-001
      -4.28425938e-001 -1.44807115e-001 -3.66513073e-001
      -2.18617454e-001 -2.62152135e-001 5.09711325e-001 3.49941850e-001
      3.63033004e-002 -3.66526812e-001 -2.42160857e-002 2.34163806e-001
      -3.12291563e-001 -6.03870690e-001 -5.28590918e-001
      -2.05478042e-001 2.93425083e-001 -2.73809433e-001 -3.32809597e-001
      -4.50542778e-001 -2.90434957e-001 -1.28802270e-001
      -1.76573217e-001 -5.90208918e-002 -5.75791001e-001
      -6.56486154e-001 1.10856429e-001 2.14456722e-001 1.98262602e-001
      -8.87004673e-001 -1.29745454e-001 -1.42836481e-001
      -5.73905647e-001 -6.00938141e-001 6.09611347e-003 6.00878373e-002
      -8.63958538e-001 -8.19138110e-001 -1.33973885e+000
      -1.03278828e+000 -5.14125407e-001 -1.68438256e-001 2.79597163e-001
      1.34514168e-001 -2.83317059e-001</_></support_vectors>
  <decision_functions>
    <_>
      <sv_count>1</sv_count>
      <rho>-2.6974596844854364e+001</rho>
      <alpha>
        1.</alpha>
      <index>
        0</index></_></decision_functions></my_svm>
</opencv_storage>
